digraph Tree {
node [shape=box, style="filled, rounded", color="black", fontname="helvetica"] ;
edge [fontname="helvetica"] ;
0 [label="indpro_report <= 1.1\ngini = 0.5\nsamples = 193\nvalue = [5.46, 4.69]", fillcolor="#fbede3"] ;
1 [label="gdp_report_lag1 <= -0.34\ngini = 0.48\nsamples = 173\nvalue = [5.32, 3.49]", fillcolor="#f6d4bb"] ;
0 -> 1 [labeldistance=2.5, labelangle=45, headlabel="True"] ;
2 [label="indpro_report <= -2.18\ngini = 0.47\nsamples = 49\nvalue = [1.12, 1.9]", fillcolor="#aed7f4"] ;
1 -> 2 ;
3 [label="gini = 0.0\nsamples = 3\nvalue = [0.43, 0.0]", fillcolor="#e58139"] ;
2 -> 3 ;
4 [label="S&P 500 Dividend Yield <= -0.17\ngini = 0.39\nsamples = 46\nvalue = [0.69, 1.9]", fillcolor="#81c0ee"] ;
2 -> 4 ;
5 [label="consumer_sentiment_report_lag5 <= 1.49\ngini = 0.32\nsamples = 22\nvalue = [0.44, 0.11]", fillcolor="#eca16b"] ;
4 -> 5 ;
6 [label="gini = 0.0\nsamples = 20\nvalue = [0.44, 0.0]", fillcolor="#e58139"] ;
5 -> 6 ;
7 [label="gini = 0.0\nsamples = 2\nvalue = [0.0, 0.11]", fillcolor="#399de5"] ;
5 -> 7 ;
8 [label="gdp_report_lag5 <= 0.55\ngini = 0.21\nsamples = 24\nvalue = [0.24, 1.79]", fillcolor="#54aae9"] ;
4 -> 8 ;
9 [label="spx_diff_lag3 <= 1.22\ngini = 0.1\nsamples = 20\nvalue = [0.1, 1.79]", fillcolor="#44a3e6"] ;
8 -> 9 ;
10 [label="unemployement_report_lag4 <= -0.91\ngini = 0.04\nsamples = 16\nvalue = [0.04, 1.79]", fillcolor="#3d9fe6"] ;
9 -> 10 ;
11 [label="gini = 0.0\nsamples = 2\nvalue = [0.03, 0.0]", fillcolor="#e58139"] ;
10 -> 11 ;
12 [label="consumer_sentiment_report_lag1 <= 1.27\ngini = 0.01\nsamples = 14\nvalue = [0.01, 1.79]", fillcolor="#3a9de5"] ;
10 -> 12 ;
13 [label="gini = 0.0\nsamples = 13\nvalue = [0.0, 1.79]", fillcolor="#399de5"] ;
12 -> 13 ;
14 [label="gini = 0.0\nsamples = 1\nvalue = [0.01, 0.0]", fillcolor="#e58139"] ;
12 -> 14 ;
15 [label="gini = 0.0\nsamples = 4\nvalue = [0.06, 0.0]", fillcolor="#e58139"] ;
9 -> 15 ;
16 [label="gini = 0.0\nsamples = 4\nvalue = [0.14, 0.0]", fillcolor="#e58139"] ;
8 -> 16 ;
17 [label="unemployement_report <= -0.28\ngini = 0.4\nsamples = 124\nvalue = [4.2, 1.59]", fillcolor="#efb184"] ;
1 -> 17 ;
18 [label="comm_index <= 0.26\ngini = 0.5\nsamples = 48\nvalue = [1.08, 1.09]", fillcolor="#fefeff"] ;
17 -> 18 ;
19 [label="S&P 500 Dividend Yield <= 0.85\ngini = 0.43\nsamples = 29\nvalue = [0.43, 0.98]", fillcolor="#91c8f1"] ;
18 -> 19 ;
20 [label="consumer_sentiment_report_lag3 <= 1.55\ngini = 0.29\nsamples = 23\nvalue = [0.21, 0.98]", fillcolor="#64b2eb"] ;
19 -> 20 ;
21 [label="int_rate_report_lag2 <= 0.21\ngini = 0.2\nsamples = 21\nvalue = [0.12, 0.98]", fillcolor="#51a9e8"] ;
20 -> 21 ;
22 [label="gdp_report_lag4 <= 1.12\ngini = 0.12\nsamples = 18\nvalue = [0.07, 0.98]", fillcolor="#46a4e7"] ;
21 -> 22 ;
23 [label="unemployement_report_lag3 <= 1.01\ngini = 0.06\nsamples = 16\nvalue = [0.03, 0.98]", fillcolor="#3fa0e6"] ;
22 -> 23 ;
24 [label="unemployement_report_lag4 <= 1.66\ngini = 0.01\nsamples = 15\nvalue = [0.01, 0.98]", fillcolor="#3a9ee5"] ;
23 -> 24 ;
25 [label="gini = 0.0\nsamples = 14\nvalue = [0.0, 0.98]", fillcolor="#399de5"] ;
24 -> 25 ;
26 [label="gini = 0.0\nsamples = 1\nvalue = [0.01, 0.0]", fillcolor="#e58139"] ;
24 -> 26 ;
27 [label="gini = 0.0\nsamples = 1\nvalue = [0.02, 0.0]", fillcolor="#e58139"] ;
23 -> 27 ;
28 [label="gini = 0.0\nsamples = 2\nvalue = [0.04, 0.0]", fillcolor="#e58139"] ;
22 -> 28 ;
29 [label="gini = 0.0\nsamples = 3\nvalue = [0.05, 0.0]", fillcolor="#e58139"] ;
21 -> 29 ;
30 [label="gini = 0.0\nsamples = 2\nvalue = [0.09, 0.0]", fillcolor="#e58139"] ;
20 -> 30 ;
31 [label="gini = 0.0\nsamples = 6\nvalue = [0.22, 0.0]", fillcolor="#e58139"] ;
19 -> 31 ;
32 [label="spx_diff_lag5 <= -1.03\ngini = 0.24\nsamples = 19\nvalue = [0.65, 0.11]", fillcolor="#e9965a"] ;
18 -> 32 ;
33 [label="gini = 0.0\nsamples = 2\nvalue = [0.0, 0.08]", fillcolor="#399de5"] ;
32 -> 33 ;
34 [label="cpi_report <= 0.91\ngini = 0.08\nsamples = 17\nvalue = [0.65, 0.03]", fillcolor="#e68742"] ;
32 -> 34 ;
35 [label="gini = 0.0\nsamples = 15\nvalue = [0.63, 0.0]", fillcolor="#e58139"] ;
34 -> 35 ;
36 [label="gini = 0.48\nsamples = 2\nvalue = [0.02, 0.03]", fillcolor="#baddf6"] ;
34 -> 36 ;
37 [label="consumer_sentiment_report_lag3 <= 0.3\ngini = 0.24\nsamples = 76\nvalue = [3.12, 0.5]", fillcolor="#e99559"] ;
17 -> 37 ;
38 [label="unemployement_report_lag4 <= -1.55\ngini = 0.03\nsamples = 51\nvalue = [2.56, 0.04]", fillcolor="#e5833c"] ;
37 -> 38 ;
39 [label="gini = 0.33\nsamples = 2\nvalue = [0.01, 0.04]", fillcolor="#6db7ec"] ;
38 -> 39 ;
40 [label="gini = 0.0\nsamples = 49\nvalue = [2.55, 0.0]", fillcolor="#e58139"] ;
38 -> 40 ;
41 [label="cpi_report_lag2 <= -0.02\ngini = 0.5\nsamples = 25\nvalue = [0.56, 0.47]", fillcolor="#fbeade"] ;
37 -> 41 ;
42 [label="spx_diff_lag3 <= -0.93\ngini = 0.27\nsamples = 13\nvalue = [0.48, 0.09]", fillcolor="#ea995f"] ;
41 -> 42 ;
43 [label="gini = 0.0\nsamples = 2\nvalue = [0.0, 0.09]", fillcolor="#399de5"] ;
42 -> 43 ;
44 [label="gini = 0.0\nsamples = 11\nvalue = [0.48, 0.0]", fillcolor="#e58139"] ;
42 -> 44 ;
45 [label="indpro_report_lag2 <= -0.86\ngini = 0.29\nsamples = 12\nvalue = [0.08, 0.37]", fillcolor="#63b2ea"] ;
41 -> 45 ;
46 [label="gini = 0.0\nsamples = 2\nvalue = [0.05, 0.0]", fillcolor="#e58139"] ;
45 -> 46 ;
47 [label="gdp_report_lag1 <= 0.96\ngini = 0.14\nsamples = 10\nvalue = [0.03, 0.37]", fillcolor="#49a5e7"] ;
45 -> 47 ;
48 [label="spx_vol <= 1.19\ngini = 0.06\nsamples = 9\nvalue = [0.01, 0.37]", fillcolor="#40a0e6"] ;
47 -> 48 ;
49 [label="gini = 0.0\nsamples = 8\nvalue = [0.0, 0.37]", fillcolor="#399de5"] ;
48 -> 49 ;
50 [label="gini = 0.0\nsamples = 1\nvalue = [0.01, 0.0]", fillcolor="#e58139"] ;
48 -> 50 ;
51 [label="gini = 0.0\nsamples = 1\nvalue = [0.02, 0.0]", fillcolor="#e58139"] ;
47 -> 51 ;
52 [label="acwi <= 0.84\ngini = 0.18\nsamples = 20\nvalue = [0.14, 1.19]", fillcolor="#50a8e8"] ;
0 -> 52 [labeldistance=2.5, labelangle=-45, headlabel="False"] ;
53 [label="RSI <= 1.29\ngini = 0.05\nsamples = 17\nvalue = [0.03, 1.19]", fillcolor="#3e9fe6"] ;
52 -> 53 ;
54 [label="consumer_sentiment_report_lag2 <= 0.56\ngini = 0.0\nsamples = 14\nvalue = [0.0, 1.19]", fillcolor="#399de5"] ;
53 -> 54 ;
55 [label="gini = 0.0\nsamples = 12\nvalue = [0.0, 1.19]", fillcolor="#399de5"] ;
54 -> 55 ;
56 [label="gini = 0.0\nsamples = 2\nvalue = [0.0, 0.0]", fillcolor="#e58139"] ;
54 -> 56 ;
57 [label="gini = 0.0\nsamples = 3\nvalue = [0.03, 0.0]", fillcolor="#e58139"] ;
53 -> 57 ;
58 [label="gini = 0.0\nsamples = 3\nvalue = [0.11, 0.0]", fillcolor="#e58139"] ;
52 -> 58 ;
}